{"iNodes":5,"hNodes":4,"oNodes":9,"hLayers":2,"weights":[{"rows":4,"cols":6,"matrix":[[0.295185923576355,0.05712643883344102,0.32173064964586623,-0.0870327351110085,-0.14005249289696575,-0.695340096950531],[0.017599640498648615,-0.13194996277823984,0.21484124570869959,0.08208427935200753,0.0019628786797701173,0.16738376021385193],[0.1297577981975664,0.0505488754603709,-0.23186044072615447,0.32388126850128174,0.22503335767026406,-0.2507978157722004],[0.07000141268819472,-0.35552533058598507,0.5510231256484985,0.05230759156006258,0.2098941735552759,-0.2582965301836716]]},{"rows":4,"cols":5,"matrix":[[0.9949232935905457,0.07125395849091228,-0.28961744377462484,0.11517055244421401,-0.004505618644254297],[0.1544493197352374,0.12658323697982457,-0.32652862059275,0.09703551366249676,0.18712404493001433],[-0.416031152009964,0.016801275748384092,-0.17264064501404472,0.49438883806401657,-0.007626720450533524],[0.09353647404771309,0.04003405829601299,0.06337029065809877,-0.14112827094560082,-0.04806287578366612]]},{"rows":9,"cols":5,"matrix":[[-0.16615532255141335,-0.10161354937807152,-0.6719684600830078,0.8561111688613892,0.13338578423265507],[0.03926418495303205,0.11671756614563897,-0.0945460910385885,0.22361864894350933,0.05622347065279185],[0.09839849308007044,0.0074499720860088615,0.13577176343366382,0.18682237829907805,0.1907655145578295],[-0.3555985237576712,-0.07810404132252634,0.09851512512939126,0.08742035785016246,-0.17623389342758353],[-0.6268230832226867,-0.22348149120807648,-0.21647982869243534,-5.903963483370882E-4,-0.10306752753065833],[0.903610348701477,-0.5854102969169617,0.16463678120368724,0.0891501895674372,0.08597647398710251],[0.2940136920798666,-0.7869794368743896,0.3638785006338348,-0.13780704113716272,0.1348322706870165],[-0.06625970098205633,0.15581515293140144,-0.0019446023702240703,0.2089111596434246,0.2920572153281833],[0.036310423374552855,0.6296542286872864,-0.008983613322441613,0.1385520432876179,-0.12124134600162506]]}],"id":"Crossover 6862"}