{"iNodes":5,"hNodes":9,"oNodes":9,"hLayers":2,"weights":[{"rows":9,"cols":6,"matrix":[[-0.9526210427284241,0.29331451654434204,-0.5589591264724731,0.3704116940498352,-0.3269928991794586,0.26324304938316345],[0.5184557437896729,-0.7819814085960388,-0.8077355027198792,-0.6077092885971069,0.9635908007621765,-0.5026654601097107],[-0.6377555131912231,0.18050616979599,0.7397528290748596,0.8417821526527405,-0.5759996175765991,-0.7516313195228577],[-0.03090321272611618,-0.9257799386978149,0.6459640264511108,-0.49421226978302,-0.13428424298763275,-0.11648557335138321],[0.10181260108947754,-0.5874863266944885,0.7960577011108398,-0.33809271454811096,0.9325572848320007,0.23632538318634033],[-0.7675050497055054,-0.548577070236206,-0.9170615673065186,0.00844548549503088,-0.913578450679779,-0.23483625054359436],[0.37483134865760803,0.2471003532409668,0.9896657466888428,0.5358180403709412,-0.8416755199432373,-0.7160383462905884],[-0.9143234491348267,-0.03082359570018403,-0.2527759373188019,0.5677299499511719,0.22304321825504303,-0.3031388521194458],[0.3102489709854126,0.13959481890987238,0.9625440239906311,0.24824627424940923,0.1929037868976593,-0.03661950305104256]]},{"rows":9,"cols":10,"matrix":[[0.24237987980582934,-0.07718952745199203,0.5567691922187805,0.6859923601150513,0.3742322623729706,0.5921004414558411,-0.36733922362327576,0.3059709370136261,0.02781045250594616,0.43172144889831543],[0.8053438067436218,-0.8505585193634033,0.328575074672699,-0.6646366119384766,0.9762987494468689,-0.10094640403985977,0.32330670952796936,0.7709293961524963,0.023805886507034302,0.5947927832603455],[-0.23956245183944702,0.08864795416593552,0.7164976596832275,-0.7931196093559265,0.05562181398272514,-0.6823607683181763,-0.36003386974334717,-0.8594698309898376,-0.13834730922047603,-0.5493251085281372],[0.5701159238815308,0.7723183035850525,0.9843925833702087,0.16910399496555328,0.5437250733375549,-0.45792701840400696,0.7566993236541748,-0.00938024464994669,-0.5455015897750854,0.8949518799781799],[0.9157572388648987,-0.06987094134092331,-0.33250346779823303,0.37223678827285767,-0.6231949329376221,0.39520832896232605,0.15809068083763123,0.0600156796247124,0.6983463168144226,-0.15398217737674713],[-0.36493849754333496,-0.5410245060920715,-0.013545447960495949,-0.4892863631248474,-0.4647810161113739,-0.11008686572313309,0.78858482837677,0.7413828372955322,-0.3943590223789215,0.0647144690155983],[0.0313684418797493,0.80455482006073,-0.9352790713310242,-0.04206208717253236,0.8853975534439087,0.02488063834607601,-0.45104411244392395,-0.28303301334381104,0.6188963651657104,-0.4625128209590912],[-0.4638109803199768,-0.5319585204124451,-0.3852653503417969,0.7620190978050232,-0.4119453728199005,0.7976305484771729,-0.3556721806526184,0.6226024031639099,-0.5339116454124451,-0.16893917322158813],[0.6674756407737732,0.9988273978233337,-0.4539125859737396,0.4478146731853485,-0.35889679193496704,0.0474587045609951,0.9428739547729492,0.6872593760490417,-0.2231793850660324,-0.20352774858474731]]},{"rows":9,"cols":10,"matrix":[[-0.45737984776496887,0.6170181632041931,-0.41410285234451294,-0.5278612375259399,-0.7065869569778442,0.5306037068367004,-0.07626073062419891,0.7513253092765808,0.6561990976333618,0.8689870238304138],[0.9888942837715149,0.9086354374885559,-0.5926040410995483,-0.04993695393204689,0.024933192878961563,0.30260440707206726,-0.2485653105648697,-0.5990307331085205,0.7672786712646484,0.8506487011909485],[0.8485811948776245,-0.2131950557231903,0.3860088586807251,0.9167606830596924,0.06546970456838608,0.3694789707660675,-0.7000837922096252,-0.5512673258781433,0.7478241324424744,0.6276666522026062],[-0.4100162982940674,-0.23370029032230377,0.7016516327857971,-0.44003158807754517,0.26627117395401,-0.04818173125386238,-0.2840765416622162,-0.8686236143112183,0.9662977457046509,-0.2586982548236847],[0.2629528045654297,0.6918063759803772,-0.5165212154388428,0.197301983833313,-0.04226371262767611,0.8794581890106201,0.922645628452301,0.6135732531547546,0.7533531785011292,0.2268446534872055],[0.7907086610794067,0.4608263671398163,-0.31049785017967224,-0.7872305512428284,0.5137088894844055,0.6836778521537781,-0.25539880990982056,-0.7547075152397156,-0.5979751944541931,0.2059505581855774],[-0.1910872757434845,-0.7136271595954895,0.4178462028503418,0.8191211223602295,-0.3947450518608093,-0.4388532042503357,-0.8181556463241577,-0.1367306262254715,0.053059808909893036,0.039336591958999634],[-0.0940551906824112,-0.5315317511558533,0.030094136416567212,-0.21250401437282562,-0.2180975377559662,0.9415683150291443,0.634530782699585,0.33141690492630005,-0.3660396635532379,0.5327976942062378],[-0.24910277128219604,0.6138288974761963,-0.9988961815834045,0.7772933840751648,0.41806963086128235,0.14085477590560913,-0.11650009453296661,-0.7303897142410278,0.34100526571273804,-0.9640812277793884]]}],"id":"Crossover 24"}