{"iNodes":5,"hNodes":6,"oNodes":9,"hLayers":3,"weights":[{"rows":6,"cols":6,"matrix":[[-0.16682957112789154,0.6495307087898254,0.5053116083145142,-0.9718257188796997,-0.5058103799819946,0.7360191941261292],[-0.04178503528237343,-0.7495313882827759,-0.5109983682632446,-0.8218393921852112,0.41913902759552,0.7199687957763672],[0.6960991621017456,0.7744274139404297,-0.1276305913925171,0.31521666049957275,0.4882725477218628,-0.7794597744941711],[0.3878563642501831,0.11129634827375412,-0.5335018634796143,0.4048290550708771,-0.9932407736778259,-0.17984481155872345],[0.9803012609481812,0.8244166374206543,-0.8957935571670532,0.6216508746147156,0.8543583750724792,0.778021514415741],[-0.13315747678279877,0.2014647126197815,0.8021844029426575,0.12404745817184448,-0.5659914612770081,0.727197527885437]]},{"rows":6,"cols":7,"matrix":[[0.9942761063575745,-0.5850917100906372,-0.3124302327632904,0.6721047759056091,-0.32383765668701675,-0.1055651530623436,-0.4122055470943451],[0.8876677751541138,0.00967089831829071,0.690604567527771,0.10856493562459946,0.766923189163208,-0.6103271842002869,-0.4252031743526459],[0.9634439945220947,-0.9496442675590515,-0.14654980599880219,0.23131169378757477,-0.2825259864330292,0.7380567193031311,-0.6164055466651917],[-0.03378112241625786,-0.7953022718429565,-0.10843377560377121,0.4874765872955322,0.2175416797399521,-0.46865159273147583,0.24936680777641507],[0.5149667263031006,0.8795981407165527,-0.6713584065437317,-0.8803145289421082,0.17037281394004822,-0.24282345175743103,0.452710896730423],[0.08832241594791412,-0.6656931638717651,-0.08349832892417908,0.29701974987983704,0.31409013271331787,-0.7524830102920532,-0.9540442824363708]]},{"rows":6,"cols":7,"matrix":[[-0.6907392144203186,0.05099758878350258,0.01473437638596968,0.5073162913322449,-0.23407122492790222,-0.8519383668899536,-0.8363030552864075],[-0.19312427937984467,-0.14464791119098663,-0.9469176530838013,-0.11869243532419205,0.919213593006134,0.8573071360588074,-0.33556079864501953],[-0.7347846031188965,-0.9360653162002563,-0.6138994693756104,0.12409389019012451,0.4811027944087982,-0.12268157303333282,0.7236071228981018],[-0.30558326840400696,-0.39470669627189636,0.563808023929596,0.8115708827972412,-0.7674009203910828,0.761963427066803,0.9208652377128601],[-0.7694205045700073,-0.17744659948421282,0.9627750515937805,-0.08645593374967575,0.4907633066177368,-0.4237450659275055,-0.07284515351057053],[-0.33049511909484863,-0.47593340277671814,0.92857825756073,-0.33583498001098633,0.41456690430641174,-0.6421838402748108,-0.014697765931487083]]},{"rows":9,"cols":7,"matrix":[[0.9753226637840271,-0.009640147909522057,-0.9672182202339172,-0.11651880895980116,-0.14829111099243164,-0.8819536566734314,0.8131252527236938],[0.031231775879859924,0.9840604066848755,0.06671202182769775,-0.5792178511619568,-0.5517647862434387,0.608657956123352,-0.6235561370849609],[0.8334301710128784,-0.4238252639770508,0.5448764562606812,0.9946635961532593,-0.22890432178974152,0.5838468670845032,0.3268333077430725],[0.8133531212806702,0.03716596961021423,-0.9842431545257568,0.9682535529136658,0.07378498464822769,0.9811465740203857,0.12585699558258057],[-0.27602967619895935,-0.12779487669467926,0.7949609160423279,0.15960553288459778,0.19843044877052307,0.9198094010353088,0.10842160880565643],[0.8320852518081665,-0.6893444657325745,-0.6068060994148254,0.7421886324882507,-0.056641869246959686,-0.16462476551532745,0.8714213967323303],[-0.3983200490474701,-0.7183611392974854,-0.3565748333930969,-0.9377216696739197,0.5154253840446472,0.9802448153495789,-0.9971053004264832],[-0.08994760364294052,0.2290075272321701,0.8960065245628357,0.17838546633720398,-0.17980991303920746,0.43220430612564087,-0.44305697083473206],[0.8446689248085022,0.8006634712219238,-0.5516847372055054,0.4142848253250122,-0.6312060356140137,0.8394951224327087,0.8710647225379944]]}],"id":"Crossover 66292"}